## LambdaMART
## No. of trees = 1000
## No. of leaves = 10
## No. of threshold candidates = 256
## Learning rate = 0.1
## Stop early = 100

<ensemble>
	<tree id="1" weight="0.1">
		<split>
			<feature> 5 </feature>
			<threshold> -1.8986729 </threshold>
			<split pos="left">
				<feature> 9 </feature>
				<threshold> -0.17937991 </threshold>
				<split pos="left">
					<feature> 8 </feature>
					<threshold> -0.02136907 </threshold>
					<split pos="left">
						<feature> 8 </feature>
						<threshold> -0.29561046 </threshold>
						<split pos="left">
							<output> 0.0 </output>
						</split>
						<split pos="right">
							<feature> 10 </feature>
							<threshold> 0.078456014 </threshold>
							<split pos="left">
								<output> 2.0 </output>
							</split>
							<split pos="right">
								<output> 2.0 </output>
							</split>
						</split>
					</split>
					<split pos="right">
						<output> 2.0 </output>
					</split>
				</split>
				<split pos="right">
					<feature> 10 </feature>
					<threshold> -0.17932403 </threshold>
					<split pos="left">
						<feature> 3 </feature>
						<threshold> 0.66735494 </threshold>
						<split pos="left">
							<feature> 8 </feature>
							<threshold> -0.15848976 </threshold>
							<split pos="left">
								<output> 0.0 </output>
							</split>
							<split pos="right">
								<feature> 4 </feature>
								<threshold> -0.5483457 </threshold>
								<split pos="left">
									<output> 2.0 </output>
								</split>
								<split pos="right">
									<output> 2.0 </output>
								</split>
							</split>
						</split>
						<split pos="right">
							<output> 2.0 </output>
						</split>
					</split>
					<split pos="right">
						<output> 2.0 </output>
					</split>
				</split>
			</split>
			<split pos="right">
				<output> -1.1668546199798584 </output>
			</split>
		</split>
	</tree>
	<tree id="2" weight="0.1">
		<split>
			<feature> 5 </feature>
			<threshold> -1.8986729 </threshold>
			<split pos="left">
				<feature> 9 </feature>
				<threshold> -0.17937991 </threshold>
				<split pos="left">
					<feature> 8 </feature>
					<threshold> -0.02136907 </threshold>
					<split pos="left">
						<feature> 8 </feature>
						<threshold> -0.29561046 </threshold>
						<split pos="left">
							<output> 0.0 </output>
						</split>
						<split pos="right">
							<feature> 10 </feature>
							<threshold> 0.078456014 </threshold>
							<split pos="left">
								<output> 1.728559970855713 </output>
							</split>
							<split pos="right">
								<output> 1.728559970855713 </output>
							</split>
						</split>
					</split>
					<split pos="right">
						<output> 1.7285598516464233 </output>
					</split>
				</split>
				<split pos="right">
					<feature> 10 </feature>
					<threshold> -0.17932403 </threshold>
					<split pos="left">
						<feature> 3 </feature>
						<threshold> 0.66735494 </threshold>
						<split pos="left">
							<feature> 8 </feature>
							<threshold> -0.15848976 </threshold>
							<split pos="left">
								<output> 0.0 </output>
							</split>
							<split pos="right">
								<feature> 4 </feature>
								<threshold> -0.5483457 </threshold>
								<split pos="left">
									<output> 1.728559970855713 </output>
								</split>
								<split pos="right">
									<output> 1.7285597324371338 </output>
								</split>
							</split>
						</split>
						<split pos="right">
							<output> 1.7285598516464233 </output>
						</split>
					</split>
					<split pos="right">
						<output> 1.7285598516464233 </output>
					</split>
				</split>
			</split>
			<split pos="right">
				<output> -0.9979784488677979 </output>
			</split>
		</split>
	</tree>
	<tree id="3" weight="0.1">
		<split>
			<feature> 5 </feature>
			<threshold> -1.8986729 </threshold>
			<split pos="left">
				<feature> 8 </feature>
				<threshold> -0.29561046 </threshold>
				<split pos="left">
					<output> 0.0 </output>
				</split>
				<split pos="right">
					<feature> 4 </feature>
					<threshold> -0.5483457 </threshold>
					<split pos="left">
						<feature> 8 </feature>
						<threshold> -0.02136907 </threshold>
						<split pos="left">
							<feature> 3 </feature>
							<threshold> -0.04367894 </threshold>
							<split pos="left">
								<feature> 9 </feature>
								<threshold> -0.28073847 </threshold>
								<split pos="left">
									<output> 0.0 </output>
								</split>
								<split pos="right">
									<feature> 4 </feature>
									<threshold> -0.63821614 </threshold>
									<split pos="left">
										<output> 1.554693579673767 </output>
									</split>
									<split pos="right">
										<feature> 1 </feature>
										<threshold> -1.246109 </threshold>
										<split pos="left">
											<output> 1.554693579673767 </output>
										</split>
										<split pos="right">
											<output> 0.0 </output>
										</split>
									</split>
								</split>
							</split>
							<split pos="right">
								<output> 0.0 </output>
							</split>
						</split>
						<split pos="right">
							<feature> 9 </feature>
							<threshold> -0.17937991 </threshold>
							<split pos="left">
								<output> 0.0 </output>
							</split>
							<split pos="right">
								<output> 1.5546938180923462 </output>
							</split>
						</split>
					</split>
					<split pos="right">
						<output> 0.0 </output>
					</split>
				</split>
			</split>
			<split pos="right">
				<output> -0.8744933605194092 </output>
			</split>
		</split>
	</tree>
	<tree id="4" weight="0.1">
		<split>
			<feature> 5 </feature>
			<threshold> -1.8986729 </threshold>
			<split pos="left">
				<feature> 8 </feature>
				<threshold> -0.02136907 </threshold>
				<split pos="left">
					<feature> 8 </feature>
					<threshold> -0.29561046 </threshold>
					<split pos="left">
						<output> 0.0 </output>
					</split>
					<split pos="right">
						<feature> 3 </feature>
						<threshold> -0.04367894 </threshold>
						<split pos="left">
							<feature> 1 </feature>
							<threshold> -1.246109 </threshold>
							<split pos="left">
								<feature> 10 </feature>
								<threshold> 0.078456014 </threshold>
								<split pos="left">
									<feature> 9 </feature>
									<threshold> -0.28073847 </threshold>
									<split pos="left">
										<output> 0.0 </output>
									</split>
									<split pos="right">
										<output> 1.4350656270980835 </output>
									</split>
								</split>
								<split pos="right">
									<output> 1.4350658655166626 </output>
								</split>
							</split>
							<split pos="right">
								<output> 0.0 </output>
							</split>
						</split>
						<split pos="right">
							<output> 0.0 </output>
						</split>
					</split>
				</split>
				<split pos="right">
					<feature> 4 </feature>
					<threshold> -0.5483457 </threshold>
					<split pos="left">
						<feature> 9 </feature>
						<threshold> -0.17937991 </threshold>
						<split pos="left">
							<output> 0.0 </output>
						</split>
						<split pos="right">
							<output> 1.4350658655166626 </output>
						</split>
					</split>
					<split pos="right">
						<output> 0.0 </output>
					</split>
				</split>
			</split>
			<split pos="right">
				<output> -0.7778335213661194 </output>
			</split>
		</split>
	</tree>
	<tree id="5" weight="0.1">
		<split>
			<feature> 5 </feature>
			<threshold> -1.8986729 </threshold>
			<split pos="left">
				<feature> 8 </feature>
				<threshold> -0.02136907 </threshold>
				<split pos="left">
					<feature> 8 </feature>
					<threshold> -0.29561046 </threshold>
					<split pos="left">
						<output> 0.0 </output>
					</split>
					<split pos="right">
						<feature> 3 </feature>
						<threshold> -0.04367894 </threshold>
						<split pos="left">
							<feature> 10 </feature>
							<threshold> 0.078456014 </threshold>
							<split pos="left">
								<output> 1.348698377609253 </output>
							</split>
							<split pos="right">
								<output> 1.348698377609253 </output>
							</split>
						</split>
						<split pos="right">
							<output> 0.0 </output>
						</split>
					</split>
				</split>
				<split pos="right">
					<feature> 4 </feature>
					<threshold> -0.5483457 </threshold>
					<split pos="left">
						<feature> 9 </feature>
						<threshold> -0.17937991 </threshold>
						<split pos="left">
							<output> 0.0 </output>
						</split>
						<split pos="right">
							<output> 1.3486982583999634 </output>
						</split>
					</split>
					<split pos="right">
						<output> 0.0 </output>
					</split>
				</split>
			</split>
			<split pos="right">
				<feature> 2 </feature>
				<threshold> 4.626005 </threshold>
				<split pos="left">
					<output> -1.137911319732666 </output>
				</split>
				<split pos="right">
					<feature> 5 </feature>
					<threshold> -1.4935843 </threshold>
					<split pos="left">
						<output> 1.995694875717163 </output>
					</split>
					<split pos="right">
						<output> -1.9176446199417114 </output>
					</split>
				</split>
			</split>
		</split>
	</tree>
	<tree id="6" weight="0.1">
		<split>
			<feature> 5 </feature>
			<threshold> -1.8986729 </threshold>
			<split pos="left">
				<feature> 8 </feature>
				<threshold> -0.02136907 </threshold>
				<split pos="left">
					<feature> 8 </feature>
					<threshold> -0.29561046 </threshold>
					<split pos="left">
						<output> 0.0 </output>
					</split>
					<split pos="right">
						<feature> 3 </feature>
						<threshold> -0.04367894 </threshold>
						<split pos="left">
							<feature> 10 </feature>
							<threshold> 0.078456014 </threshold>
							<split pos="left">
								<output> 1.2719390392303467 </output>
							</split>
							<split pos="right">
								<output> 1.2719415426254272 </output>
							</split>
						</split>
						<split pos="right">
							<output> 0.0 </output>
						</split>
					</split>
				</split>
				<split pos="right">
					<feature> 4 </feature>
					<threshold> -0.5483457 </threshold>
					<split pos="left">
						<feature> 9 </feature>
						<threshold> -0.17937991 </threshold>
						<split pos="left">
							<output> 0.0 </output>
						</split>
						<split pos="right">
							<output> 1.271943211555481 </output>
						</split>
					</split>
					<split pos="right">
						<output> 0.0 </output>
					</split>
				</split>
			</split>
			<split pos="right">
				<feature> 2 </feature>
				<threshold> 4.626005 </threshold>
				<split pos="left">
					<output> -1.0370124578475952 </output>
				</split>
				<split pos="right">
					<feature> 5 </feature>
					<threshold> -1.4935843 </threshold>
					<split pos="left">
						<output> 1.7255667448043823 </output>
					</split>
					<split pos="right">
						<output> -1.695372223854065 </output>
					</split>
				</split>
			</split>
		</split>
	</tree>
	<tree id="7" weight="0.1">
		<split>
			<feature> 5 </feature>
			<threshold> -1.8986729 </threshold>
			<split pos="left">
				<feature> 8 </feature>
				<threshold> -0.02136907 </threshold>
				<split pos="left">
					<feature> 8 </feature>
					<threshold> -0.29561046 </threshold>
					<split pos="left">
						<output> 0.0 </output>
					</split>
					<split pos="right">
						<feature> 3 </feature>
						<threshold> -0.04367894 </threshold>
						<split pos="left">
							<feature> 10 </feature>
							<threshold> 0.078456014 </threshold>
							<split pos="left">
								<output> 1.2159020900726318 </output>
							</split>
							<split pos="right">
								<output> 1.2159067392349243 </output>
							</split>
						</split>
						<split pos="right">
							<output> 0.0 </output>
						</split>
					</split>
				</split>
				<split pos="right">
					<feature> 4 </feature>
					<threshold> -0.5483457 </threshold>
					<split pos="left">
						<feature> 9 </feature>
						<threshold> -0.17937991 </threshold>
						<split pos="left">
							<output> 0.0 </output>
						</split>
						<split pos="right">
							<output> 1.2159100770950317 </output>
						</split>
					</split>
					<split pos="right">
						<output> 0.0 </output>
					</split>
				</split>
			</split>
			<split pos="right">
				<feature> 2 </feature>
				<threshold> 4.626005 </threshold>
				<split pos="left">
					<output> -0.9469245076179504 </output>
				</split>
				<split pos="right">
					<feature> 5 </feature>
					<threshold> -1.4935843 </threshold>
					<split pos="left">
						<output> 1.5485351085662842 </output>
					</split>
					<split pos="right">
						<output> -1.5599925518035889 </output>
					</split>
				</split>
			</split>
		</split>
	</tree>
	<tree id="8" weight="0.1">
		<split>
			<feature> 5 </feature>
			<threshold> -1.8986729 </threshold>
			<split pos="left">
				<feature> 8 </feature>
				<threshold> -0.02136907 </threshold>
				<split pos="left">
					<feature> 8 </feature>
					<threshold> -0.29561046 </threshold>
					<split pos="left">
						<output> 0.0 </output>
					</split>
					<split pos="right">
						<feature> 3 </feature>
						<threshold> -0.04367894 </threshold>
						<split pos="left">
							<feature> 10 </feature>
							<threshold> 0.078456014 </threshold>
							<split pos="left">
								<output> 1.1739449501037598 </output>
							</split>
							<split pos="right">
								<output> 1.1739566326141357 </output>
							</split>
						</split>
						<split pos="right">
							<output> 0.0 </output>
						</split>
					</split>
				</split>
				<split pos="right">
					<feature> 4 </feature>
					<threshold> -0.5483457 </threshold>
					<split pos="left">
						<feature> 9 </feature>
						<threshold> -0.17937991 </threshold>
						<split pos="left">
							<output> 0.0 </output>
						</split>
						<split pos="right">
							<output> 1.1739652156829834 </output>
						</split>
					</split>
					<split pos="right">
						<output> 0.0 </output>
					</split>
				</split>
			</split>
			<split pos="right">
				<feature> 2 </feature>
				<threshold> 4.626005 </threshold>
				<split pos="left">
					<output> -0.8708231449127197 </output>
				</split>
				<split pos="right">
					<feature> 5 </feature>
					<threshold> -1.4935843 </threshold>
					<split pos="left">
						<output> 1.426052212715149 </output>
					</split>
					<split pos="right">
						<output> -1.4756557941436768 </output>
					</split>
				</split>
			</split>
		</split>
	</tree>
	<tree id="9" weight="0.1">
		<split>
			<feature> 5 </feature>
			<threshold> -1.8986729 </threshold>
			<split pos="left">
				<feature> 8 </feature>
				<threshold> -0.02136907 </threshold>
				<split pos="left">
					<feature> 8 </feature>
					<threshold> -0.29561046 </threshold>
					<split pos="left">
						<output> 0.0 </output>
					</split>
					<split pos="right">
						<feature> 3 </feature>
						<threshold> -0.04367894 </threshold>
						<split pos="left">
							<feature> 10 </feature>
							<threshold> 0.078456014 </threshold>
							<split pos="left">
								<output> 1.1418322324752808 </output>
							</split>
							<split pos="right">
								<output> 1.1418486833572388 </output>
							</split>
						</split>
						<split pos="right">
							<output> 0.0 </output>
						</split>
					</split>
				</split>
				<split pos="right">
					<feature> 4 </feature>
					<threshold> -0.5483457 </threshold>
					<split pos="left">
						<feature> 9 </feature>
						<threshold> -0.17937991 </threshold>
						<split pos="left">
							<output> 0.0 </output>
						</split>
						<split pos="right">
							<output> 1.1418602466583252 </output>
						</split>
					</split>
					<split pos="right">
						<output> 0.0 </output>
					</split>
				</split>
			</split>
			<split pos="right">
				<feature> 2 </feature>
				<threshold> 4.626005 </threshold>
				<split pos="left">
					<output> -0.8040452599525452 </output>
				</split>
				<split pos="right">
					<feature> 5 </feature>
					<threshold> -1.4935843 </threshold>
					<split pos="left">
						<output> 1.3371286392211914 </output>
					</split>
					<split pos="right">
						<output> -1.4224530458450317 </output>
					</split>
				</split>
			</split>
		</split>
	</tree>
	<tree id="10" weight="0.1">
		<split>
			<feature> 5 </feature>
			<threshold> -1.4935843 </threshold>
			<split pos="left">
				<feature> 1 </feature>
				<threshold> 2.2014577 </threshold>
				<split pos="left">
					<feature> 11 </feature>
					<threshold> -0.97889006 </threshold>
					<split pos="left">
						<output> 1.9418710470199585 </output>
					</split>
					<split pos="right">
						<feature> 5 </feature>
						<threshold> -1.8986729 </threshold>
						<split pos="left">
							<feature> 8 </feature>
							<threshold> -0.02136907 </threshold>
							<split pos="left">
								<feature> 8 </feature>
								<threshold> -0.29561046 </threshold>
								<split pos="left">
									<output> 0.0 </output>
								</split>
								<split pos="right">
									<feature> 3 </feature>
									<threshold> -0.04367894 </threshold>
									<split pos="left">
										<output> 1.1168080568313599 </output>
									</split>
									<split pos="right">
										<output> 0.0 </output>
									</split>
								</split>
							</split>
							<split pos="right">
								<feature> 4 </feature>
								<threshold> -0.5483457 </threshold>
								<split pos="left">
									<feature> 9 </feature>
									<threshold> -0.17937991 </threshold>
									<split pos="left">
										<output> 0.0 </output>
									</split>
									<split pos="right">
										<output> 1.116850733757019 </output>
									</split>
								</split>
								<split pos="right">
									<output> 0.0 </output>
								</split>
							</split>
						</split>
						<split pos="right">
							<output> 0.5369389653205872 </output>
						</split>
					</split>
				</split>
				<split pos="right">
					<output> 1.4144840240478516 </output>
				</split>
			</split>
			<split pos="right">
				<output> -1.194836139678955 </output>
			</split>
		</split>
	</tree>
	<tree id="11" weight="0.1">
		<split>
			<feature> 5 </feature>
			<threshold> -1.4935843 </threshold>
			<split pos="left">
				<feature> 1 </feature>
				<threshold> 2.2014577 </threshold>
				<split pos="left">
					<feature> 11 </feature>
					<threshold> -0.97889006 </threshold>
					<split pos="left">
						<output> 1.6787819862365723 </output>
					</split>
					<split pos="right">
						<feature> 5 </feature>
						<threshold> -1.8986729 </threshold>
						<split pos="left">
							<feature> 8 </feature>
							<threshold> -0.02136907 </threshold>
							<split pos="left">
								<feature> 8 </feature>
								<threshold> -0.29561046 </threshold>
								<split pos="left">
									<output> 0.0 </output>
								</split>
								<split pos="right">
									<feature> 3 </feature>
									<threshold> -0.04367894 </threshold>
									<split pos="left">
										<output> 1.0945340394973755 </output>
									</split>
									<split pos="right">
										<output> 0.0 </output>
									</split>
								</split>
							</split>
							<split pos="right">
								<feature> 4 </feature>
								<threshold> -0.5483457 </threshold>
								<split pos="left">
									<feature> 9 </feature>
									<threshold> -0.17937991 </threshold>
									<split pos="left">
										<output> 0.0 </output>
									</split>
									<split pos="right">
										<output> 1.0946465730667114 </output>
									</split>
								</split>
								<split pos="right">
									<output> 0.0 </output>
								</split>
							</split>
						</split>
						<split pos="right">
							<output> -1.1335482597351074 </output>
						</split>
					</split>
				</split>
				<split pos="right">
					<output> 1.4003688097000122 </output>
				</split>
			</split>
			<split pos="right">
				<output> -1.2732632160186768 </output>
			</split>
		</split>
	</tree>
	<tree id="12" weight="0.1">
		<split>
			<feature> 5 </feature>
			<threshold> -1.4935843 </threshold>
			<split pos="left">
				<feature> 1 </feature>
				<threshold> 2.2014577 </threshold>
				<split pos="left">
					<feature> 11 </feature>
					<threshold> -0.97889006 </threshold>
					<split pos="left">
						<output> 1.4896447658538818 </output>
					</split>
					<split pos="right">
						<feature> 5 </feature>
						<threshold> -1.8986729 </threshold>
						<split pos="left">
							<feature> 8 </feature>
							<threshold> -0.02136907 </threshold>
							<split pos="left">
								<feature> 8 </feature>
								<threshold> -0.29561046 </threshold>
								<split pos="left">
									<output> 0.0 </output>
								</split>
								<split pos="right">
									<feature> 3 </feature>
									<threshold> -0.04367894 </threshold>
									<split pos="left">
										<output> 1.0747876167297363 </output>
									</split>
									<split pos="right">
										<output> 0.0 </output>
									</split>
								</split>
							</split>
							<split pos="right">
								<feature> 4 </feature>
								<threshold> -0.5483457 </threshold>
								<split pos="left">
									<feature> 9 </feature>
									<threshold> -0.17937991 </threshold>
									<split pos="left">
										<output> 0.0 </output>
									</split>
									<split pos="right">
										<output> 1.0748748779296875 </output>
									</split>
								</split>
								<split pos="right">
									<output> 0.0 </output>
								</split>
							</split>
						</split>
						<split pos="right">
							<output> -1.1032145023345947 </output>
						</split>
					</split>
				</split>
				<split pos="right">
					<output> 1.3191466331481934 </output>
				</split>
			</split>
			<split pos="right">
				<output> -1.2189689874649048 </output>
			</split>
		</split>
	</tree>
	<tree id="13" weight="0.1">
		<split>
			<feature> 5 </feature>
			<threshold> -1.4935843 </threshold>
			<split pos="left">
				<feature> 1 </feature>
				<threshold> 2.2014577 </threshold>
				<split pos="left">
					<feature> 11 </feature>
					<threshold> -0.97889006 </threshold>
					<split pos="left">
						<output> 1.3559237718582153 </output>
					</split>
					<split pos="right">
						<feature> 5 </feature>
						<threshold> -1.8986729 </threshold>
						<split pos="left">
							<feature> 8 </feature>
							<threshold> -0.02136907 </threshold>
							<split pos="left">
								<feature> 8 </feature>
								<threshold> -0.29561046 </threshold>
								<split pos="left">
									<output> 0.0 </output>
								</split>
								<split pos="right">
									<feature> 3 </feature>
									<threshold> -0.04367894 </threshold>
									<split pos="left">
										<output> 1.0595760345458984 </output>
									</split>
									<split pos="right">
										<output> 0.0 </output>
									</split>
								</split>
							</split>
							<split pos="right">
								<feature> 4 </feature>
								<threshold> -0.5483457 </threshold>
								<split pos="left">
									<feature> 9 </feature>
									<threshold> -0.17937991 </threshold>
									<split pos="left">
										<output> 0.0 </output>
									</split>
									<split pos="right">
										<output> 1.0596510171890259 </output>
									</split>
								</split>
								<split pos="right">
									<output> 0.0 </output>
								</split>
							</split>
						</split>
						<split pos="right">
							<output> -1.0775864124298096 </output>
						</split>
					</split>
				</split>
				<split pos="right">
					<output> 1.2561159133911133 </output>
				</split>
			</split>
			<split pos="right">
				<output> -1.1756436824798584 </output>
			</split>
		</split>
	</tree>
	<tree id="14" weight="0.1">
		<split>
			<feature> 5 </feature>
			<threshold> -1.4935843 </threshold>
			<split pos="left">
				<feature> 1 </feature>
				<threshold> 2.2014577 </threshold>
				<split pos="left">
					<feature> 11 </feature>
					<threshold> -0.97889006 </threshold>
					<split pos="left">
						<output> 1.2564133405685425 </output>
					</split>
					<split pos="right">
						<feature> 5 </feature>
						<threshold> -1.8986729 </threshold>
						<split pos="left">
							<feature> 8 </feature>
							<threshold> -0.02136907 </threshold>
							<split pos="left">
								<feature> 8 </feature>
								<threshold> -0.29561046 </threshold>
								<split pos="left">
									<output> 0.0 </output>
								</split>
								<split pos="right">
									<feature> 3 </feature>
									<threshold> -0.04367894 </threshold>
									<split pos="left">
										<output> 1.047726035118103 </output>
									</split>
									<split pos="right">
										<output> 0.0 </output>
									</split>
								</split>
							</split>
							<split pos="right">
								<feature> 4 </feature>
								<threshold> -0.5483457 </threshold>
								<split pos="left">
									<feature> 9 </feature>
									<threshold> -0.17937991 </threshold>
									<split pos="left">
										<output> 0.0 </output>
									</split>
									<split pos="right">
										<output> 1.0477899312973022 </output>
									</split>
								</split>
								<split pos="right">
									<output> 0.0 </output>
								</split>
							</split>
						</split>
						<split pos="right">
							<output> -1.0554392337799072 </output>
						</split>
					</split>
				</split>
				<split pos="right">
					<output> 1.2064950466156006 </output>
				</split>
			</split>
			<split pos="right">
				<output> -1.1406461000442505 </output>
			</split>
		</split>
	</tree>
	<tree id="15" weight="0.1">
		<split>
			<feature> 5 </feature>
			<threshold> -1.4935843 </threshold>
			<split pos="left">
				<feature> 1 </feature>
				<threshold> 2.2014577 </threshold>
				<split pos="left">
					<feature> 11 </feature>
					<threshold> -0.97889006 </threshold>
					<split pos="left">
						<output> 1.1789573431015015 </output>
					</split>
					<split pos="right">
						<feature> 5 </feature>
						<threshold> -1.8986729 </threshold>
						<split pos="left">
							<feature> 8 </feature>
							<threshold> -0.02136907 </threshold>
							<split pos="left">
								<feature> 8 </feature>
								<threshold> -0.29561046 </threshold>
								<split pos="left">
									<output> 0.0 </output>
								</split>
								<split pos="right">
									<feature> 3 </feature>
									<threshold> -0.04367894 </threshold>
									<split pos="left">
										<output> 1.0384052991867065 </output>
									</split>
									<split pos="right">
										<output> 0.0 </output>
									</split>
								</split>
							</split>
							<split pos="right">
								<feature> 4 </feature>
								<threshold> -0.5483457 </threshold>
								<split pos="left">
									<feature> 9 </feature>
									<threshold> -0.17937991 </threshold>
									<split pos="left">
										<output> 0.0 </output>
									</split>
									<split pos="right">
										<output> 1.0384595394134521 </output>
									</split>
								</split>
								<split pos="right">
									<output> 0.0 </output>
								</split>
							</split>
						</split>
						<split pos="right">
							<output> -1.0357204675674438 </output>
						</split>
					</split>
				</split>
				<split pos="right">
					<output> 1.1670559644699097 </output>
				</split>
			</split>
			<split pos="right">
				<output> -1.1120686531066895 </output>
			</split>
		</split>
	</tree>
	<tree id="16" weight="0.1">
		<split>
			<feature> 5 </feature>
			<threshold> -1.4935843 </threshold>
			<split pos="left">
				<feature> 1 </feature>
				<threshold> 2.2014577 </threshold>
				<split pos="left">
					<feature> 11 </feature>
					<threshold> -0.97889006 </threshold>
					<split pos="left">
						<output> 1.1160087585449219 </output>
					</split>
					<split pos="right">
						<feature> 5 </feature>
						<threshold> -1.8986729 </threshold>
						<split pos="left">
							<feature> 8 </feature>
							<threshold> -0.02136907 </threshold>
							<split pos="left">
								<feature> 8 </feature>
								<threshold> -0.29561046 </threshold>
								<split pos="left">
									<output> 0.0 </output>
								</split>
								<split pos="right">
									<feature> 3 </feature>
									<threshold> -0.04367894 </threshold>
									<split pos="left">
										<output> 1.0310304164886475 </output>
									</split>
									<split pos="right">
										<output> 0.0 </output>
									</split>
								</split>
							</split>
							<split pos="right">
								<feature> 4 </feature>
								<threshold> -0.5483457 </threshold>
								<split pos="left">
									<feature> 9 </feature>
									<threshold> -0.17937991 </threshold>
									<split pos="left">
										<output> 0.0 </output>
									</split>
									<split pos="right">
										<output> 1.0310686826705933 </output>
									</split>
								</split>
								<split pos="right">
									<output> 0.0 </output>
								</split>
							</split>
						</split>
						<split pos="right">
							<output> -1.0176548957824707 </output>
						</split>
					</split>
				</split>
				<split pos="right">
					<output> 1.135501503944397 </output>
				</split>
			</split>
			<split pos="right">
				<output> -1.0884658098220825 </output>
			</split>
		</split>
	</tree>
	<tree id="17" weight="0.1">
		<split>
			<feature> 5 </feature>
			<threshold> -1.4935843 </threshold>
			<split pos="left">
				<feature> 1 </feature>
				<threshold> 2.2014577 </threshold>
				<split pos="left">
					<feature> 11 </feature>
					<threshold> -0.97889006 </threshold>
					<split pos="left">
						<output> 1.0625630617141724 </output>
					</split>
					<split pos="right">
						<feature> 5 </feature>
						<threshold> -1.8986729 </threshold>
						<split pos="left">
							<feature> 8 </feature>
							<threshold> -0.02136907 </threshold>
							<split pos="left">
								<feature> 8 </feature>
								<threshold> -0.29561046 </threshold>
								<split pos="left">
									<output> 0.0 </output>
								</split>
								<split pos="right">
									<feature> 3 </feature>
									<threshold> -0.04367894 </threshold>
									<split pos="left">
										<output> 1.0251379013061523 </output>
									</split>
									<split pos="right">
										<output> 0.0 </output>
									</split>
								</split>
							</split>
							<split pos="right">
								<feature> 4 </feature>
								<threshold> -0.5483457 </threshold>
								<split pos="left">
									<feature> 9 </feature>
									<threshold> -0.17937991 </threshold>
									<split pos="left">
										<output> 0.0 </output>
									</split>
									<split pos="right">
										<output> 1.025170087814331 </output>
									</split>
								</split>
								<split pos="right">
									<output> 0.0 </output>
								</split>
							</split>
						</split>
						<split pos="right">
							<output> -1.0003149509429932 </output>
						</split>
					</split>
				</split>
				<split pos="right">
					<output> 1.1101340055465698 </output>
				</split>
			</split>
			<split pos="right">
				<output> -1.068711757659912 </output>
			</split>
		</split>
	</tree>
	<tree id="18" weight="0.1">
		<split>
			<feature> 5 </feature>
			<threshold> -1.4935843 </threshold>
			<split pos="left">
				<feature> 1 </feature>
				<threshold> 2.2014577 </threshold>
				<split pos="left">
					<feature> 11 </feature>
					<threshold> -0.97889006 </threshold>
					<split pos="left">
						<output> 1.0151023864746094 </output>
					</split>
					<split pos="right">
						<feature> 5 </feature>
						<threshold> -1.8986729 </threshold>
						<split pos="left">
							<feature> 8 </feature>
							<threshold> -0.02136907 </threshold>
							<split pos="left">
								<feature> 8 </feature>
								<threshold> -0.29561046 </threshold>
								<split pos="left">
									<output> 0.0 </output>
								</split>
								<split pos="right">
									<feature> 3 </feature>
									<threshold> -0.04367894 </threshold>
									<split pos="left">
										<output> 1.0204155445098877 </output>
									</split>
									<split pos="right">
										<output> 0.0 </output>
									</split>
								</split>
							</split>
							<split pos="right">
								<feature> 4 </feature>
								<threshold> -0.5483457 </threshold>
								<split pos="left">
									<feature> 9 </feature>
									<threshold> -0.17937991 </threshold>
									<split pos="left">
										<output> 0.0 </output>
									</split>
									<split pos="right">
										<output> 1.0204428434371948 </output>
									</split>
								</split>
								<split pos="right">
									<output> 0.0 </output>
								</split>
							</split>
						</split>
						<split pos="right">
							<output> -0.9831172227859497 </output>
						</split>
					</split>
				</split>
				<split pos="right">
					<output> 1.089667558670044 </output>
				</split>
			</split>
			<split pos="right">
				<output> -1.0519015789031982 </output>
			</split>
		</split>
	</tree>
	<tree id="19" weight="0.1">
		<split>
			<feature> 5 </feature>
			<threshold> -1.4935843 </threshold>
			<split pos="left">
				<feature> 1 </feature>
				<threshold> 2.2014577 </threshold>
				<split pos="left">
					<feature> 11 </feature>
					<threshold> -0.97889006 </threshold>
					<split pos="left">
						<output> 0.9710241556167603 </output>
					</split>
					<split pos="right">
						<feature> 5 </feature>
						<threshold> -1.8986729 </threshold>
						<split pos="left">
							<feature> 8 </feature>
							<threshold> -0.02136907 </threshold>
							<split pos="left">
								<feature> 8 </feature>
								<threshold> -0.29561046 </threshold>
								<split pos="left">
									<output> 0.0 </output>
								</split>
								<split pos="right">
									<feature> 3 </feature>
									<threshold> -0.04367894 </threshold>
									<split pos="left">
										<output> 1.0166164636611938 </output>
									</split>
									<split pos="right">
										<output> 0.0 </output>
									</split>
								</split>
							</split>
							<split pos="right">
								<feature> 4 </feature>
								<threshold> -0.5483457 </threshold>
								<split pos="left">
									<feature> 9 </feature>
									<threshold> -0.17937991 </threshold>
									<split pos="left">
										<output> 0.0 </output>
									</split>
									<split pos="right">
										<output> 1.016639232635498 </output>
									</split>
								</split>
								<split pos="right">
									<output> 0.0 </output>
								</split>
							</split>
						</split>
						<split pos="right">
							<output> -0.9654191732406616 </output>
						</split>
					</split>
				</split>
				<split pos="right">
					<output> 1.0731092691421509 </output>
				</split>
			</split>
			<split pos="right">
				<output> -1.0372968912124634 </output>
			</split>
		</split>
	</tree>
	<tree id="20" weight="0.1">
		<split>
			<feature> 5 </feature>
			<threshold> -1.4935843 </threshold>
			<split pos="left">
				<feature> 1 </feature>
				<threshold> 2.2014577 </threshold>
				<split pos="left">
					<feature> 11 </feature>
					<threshold> -0.97889006 </threshold>
					<split pos="left">
						<output> 0.928313672542572 </output>
					</split>
					<split pos="right">
						<feature> 5 </feature>
						<threshold> -1.8986729 </threshold>
						<split pos="left">
							<feature> 8 </feature>
							<threshold> -0.02136907 </threshold>
							<split pos="left">
								<feature> 8 </feature>
								<threshold> -0.29561046 </threshold>
								<split pos="left">
									<output> 0.0 </output>
								</split>
								<split pos="right">
									<feature> 3 </feature>
									<threshold> -0.04367894 </threshold>
									<split pos="left">
										<output> 1.013549566268921 </output>
									</split>
									<split pos="right">
										<output> 0.0 </output>
									</split>
								</split>
							</split>
							<split pos="right">
								<feature> 4 </feature>
								<threshold> -0.5483457 </threshold>
								<split pos="left">
									<feature> 9 </feature>
									<threshold> -0.17937991 </threshold>
									<split pos="left">
										<output> 0.0 </output>
									</split>
									<split pos="right">
										<output> 1.0135691165924072 </output>
									</split>
								</split>
								<split pos="right">
									<output> 0.0 </output>
								</split>
							</split>
						</split>
						<split pos="right">
							<output> -0.9465901851654053 </output>
						</split>
					</split>
				</split>
				<split pos="right">
					<output> 1.0596834421157837 </output>
				</split>
			</split>
			<split pos="right">
				<output> -1.0242724418640137 </output>
			</split>
		</split>
	</tree>
	<tree id="21" weight="0.1">
		<split>
			<feature> 5 </feature>
			<threshold> -1.4935843 </threshold>
			<split pos="left">
				<feature> 1 </feature>
				<threshold> 2.2014577 </threshold>
				<split pos="left">
					<feature> 11 </feature>
					<threshold> -0.97889006 </threshold>
					<split pos="left">
						<output> 0.8853572607040405 </output>
					</split>
					<split pos="right">
						<feature> 5 </feature>
						<threshold> -1.8986729 </threshold>
						<split pos="left">
							<feature> 8 </feature>
							<threshold> -0.02136907 </threshold>
							<split pos="left">
								<feature> 8 </feature>
								<threshold> -0.29561046 </threshold>
								<split pos="left">
									<output> 0.0 </output>
								</split>
								<split pos="right">
									<feature> 3 </feature>
									<threshold> -0.04367894 </threshold>
									<split pos="left">
										<output> 1.0110679864883423 </output>
									</split>
									<split pos="right">
										<output> 0.0 </output>
									</split>
								</split>
							</split>
							<split pos="right">
								<feature> 4 </feature>
								<threshold> -0.5483457 </threshold>
								<split pos="left">
									<feature> 9 </feature>
									<threshold> -0.17937991 </threshold>
									<split pos="left">
										<output> 0.0 </output>
									</split>
									<split pos="right">
										<output> 1.0110845565795898 </output>
									</split>
								</split>
								<split pos="right">
									<output> 0.0 </output>
								</split>
							</split>
						</split>
						<split pos="right">
							<output> -0.9259953498840332 </output>
						</split>
					</split>
				</split>
				<split pos="right">
					<output> 1.0487785339355469 </output>
				</split>
			</split>
			<split pos="right">
				<output> -1.0122877359390259 </output>
			</split>
		</split>
	</tree>
	<tree id="22" weight="0.1">
		<split>
			<feature> 5 </feature>
			<threshold> -1.4935843 </threshold>
			<split pos="left">
				<feature> 1 </feature>
				<threshold> 2.2014577 </threshold>
				<split pos="left">
					<feature> 11 </feature>
					<threshold> -0.97889006 </threshold>
					<split pos="left">
						<output> 0.840838611125946 </output>
					</split>
					<split pos="right">
						<feature> 5 </feature>
						<threshold> -1.8986729 </threshold>
						<split pos="left">
							<feature> 8 </feature>
							<threshold> -0.02136907 </threshold>
							<split pos="left">
								<feature> 8 </feature>
								<threshold> -0.29561046 </threshold>
								<split pos="left">
									<output> 0.0 </output>
								</split>
								<split pos="right">
									<feature> 3 </feature>
									<threshold> -0.04367894 </threshold>
									<split pos="left">
										<output> 1.0090553760528564 </output>
									</split>
									<split pos="right">
										<output> 0.0 </output>
									</split>
								</split>
							</split>
							<split pos="right">
								<feature> 4 </feature>
								<threshold> -0.5483457 </threshold>
								<split pos="left">
									<feature> 9 </feature>
									<threshold> -0.17937991 </threshold>
									<split pos="left">
										<output> 0.0 </output>
									</split>
									<split pos="right">
										<output> 1.0090694427490234 </output>
									</split>
								</split>
								<split pos="right">
									<output> 0.0 </output>
								</split>
							</split>
						</split>
						<split pos="right">
							<output> -0.9029842019081116 </output>
						</split>
					</split>
				</split>
				<split pos="right">
					<output> 1.039908528327942 </output>
				</split>
			</split>
			<split pos="right">
				<output> -1.0008704662322998 </output>
			</split>
		</split>
	</tree>
	<tree id="23" weight="0.1">
		<split>
			<feature> 5 </feature>
			<threshold> -1.4935843 </threshold>
			<split pos="left">
				<feature> 1 </feature>
				<threshold> 2.2014577 </threshold>
				<split pos="left">
					<feature> 11 </feature>
					<threshold> -0.97889006 </threshold>
					<split pos="left">
						<output> 0.7936862707138062 </output>
					</split>
					<split pos="right">
						<feature> 5 </feature>
						<threshold> -1.8986729 </threshold>
						<split pos="left">
							<feature> 8 </feature>
							<threshold> -0.02136907 </threshold>
							<split pos="left">
								<feature> 8 </feature>
								<threshold> -0.29561046 </threshold>
								<split pos="left">
									<output> 0.0 </output>
								</split>
								<split pos="right">
									<feature> 3 </feature>
									<threshold> -0.04367894 </threshold>
									<split pos="left">
										<output> 1.007420539855957 </output>
									</split>
									<split pos="right">
										<output> 0.0 </output>
									</split>
								</split>
							</split>
							<split pos="right">
								<feature> 4 </feature>
								<threshold> -0.5483457 </threshold>
								<split pos="left">
									<feature> 9 </feature>
									<threshold> -0.17937991 </threshold>
									<split pos="left">
										<output> 0.0 </output>
									</split>
									<split pos="right">
										<output> 1.007432460784912 </output>
									</split>
								</split>
								<split pos="right">
									<output> 0.0 </output>
								</split>
							</split>
						</split>
						<split pos="right">
							<output> -0.8768860697746277 </output>
						</split>
					</split>
				</split>
				<split pos="right">
					<output> 1.0326849222183228 </output>
				</split>
			</split>
			<split pos="right">
				<output> -0.9895766377449036 </output>
			</split>
		</split>
	</tree>
	<tree id="24" weight="0.1">
		<split>
			<feature> 5 </feature>
			<threshold> -1.4935843 </threshold>
			<split pos="left">
				<feature> 1 </feature>
				<threshold> 2.2014577 </threshold>
				<split pos="left">
					<feature> 11 </feature>
					<threshold> -0.97889006 </threshold>
					<split pos="left">
						<output> 0.7430607080459595 </output>
					</split>
					<split pos="right">
						<feature> 5 </feature>
						<threshold> -1.8986729 </threshold>
						<split pos="left">
							<feature> 8 </feature>
							<threshold> -0.02136907 </threshold>
							<split pos="left">
								<feature> 8 </feature>
								<threshold> -0.29561046 </threshold>
								<split pos="left">
									<output> 0.0 </output>
								</split>
								<split pos="right">
									<feature> 3 </feature>
									<threshold> -0.04367894 </threshold>
									<split pos="left">
										<output> 1.006090521812439 </output>
									</split>
									<split pos="right">
										<output> 0.0 </output>
									</split>
								</split>
							</split>
							<split pos="right">
								<feature> 4 </feature>
								<threshold> -0.5483457 </threshold>
								<split pos="left">
									<feature> 9 </feature>
									<threshold> -0.17937991 </threshold>
									<split pos="left">
										<output> 0.0 </output>
									</split>
									<split pos="right">
										<output> 1.0061008930206299 </output>
									</split>
								</split>
								<split pos="right">
									<output> 0.0 </output>
								</split>
							</split>
						</split>
						<split pos="right">
							<output> -0.8470136523246765 </output>
						</split>
					</split>
				</split>
				<split pos="right">
					<output> 1.026796579360962 </output>
				</split>
			</split>
			<split pos="right">
				<output> -0.9779989719390869 </output>
			</split>
		</split>
	</tree>
	<tree id="25" weight="0.1">
		<split>
			<feature> 5 </feature>
			<threshold> -1.4935843 </threshold>
			<split pos="left">
				<feature> 1 </feature>
				<threshold> 2.2014577 </threshold>
				<split pos="left">
					<feature> 11 </feature>
					<threshold> -0.97889006 </threshold>
					<split pos="left">
						<output> 0.6883653998374939 </output>
					</split>
					<split pos="right">
						<feature> 5 </feature>
						<threshold> -1.8986729 </threshold>
						<split pos="left">
							<feature> 8 </feature>
							<threshold> -0.02136907 </threshold>
							<split pos="left">
								<feature> 8 </feature>
								<threshold> -0.29561046 </threshold>
								<split pos="left">
									<output> 0.0 </output>
								</split>
								<split pos="right">
									<feature> 3 </feature>
									<threshold> -0.04367894 </threshold>
									<split pos="left">
										<output> 1.0050075054168701 </output>
									</split>
									<split pos="right">
										<output> 0.0 </output>
									</split>
								</split>
							</split>
							<split pos="right">
								<feature> 4 </feature>
								<threshold> -0.5483457 </threshold>
								<split pos="left">
									<feature> 9 </feature>
									<threshold> -0.17937991 </threshold>
									<split pos="left">
										<output> 0.0 </output>
									</split>
									<split pos="right">
										<output> 1.0050164461135864 </output>
									</split>
								</split>
								<split pos="right">
									<output> 0.0 </output>
								</split>
							</split>
						</split>
						<split pos="right">
							<output> -0.8126751780509949 </output>
						</split>
					</split>
				</split>
				<split pos="right">
					<output> 1.0219931602478027 </output>
				</split>
			</split>
			<split pos="right">
				<output> -0.9657290577888489 </output>
			</split>
		</split>
	</tree>
	<tree id="26" weight="0.1">
		<split>
			<feature> 5 </feature>
			<threshold> -1.4935843 </threshold>
			<split pos="left">
				<feature> 1 </feature>
				<threshold> 2.2014577 </threshold>
				<split pos="left">
					<feature> 11 </feature>
					<threshold> -0.97889006 </threshold>
					<split pos="left">
						<output> 0.6292735934257507 </output>
					</split>
					<split pos="right">
						<feature> 5 </feature>
						<threshold> -1.8986729 </threshold>
						<split pos="left">
							<feature> 8 </feature>
							<threshold> -0.02136907 </threshold>
							<split pos="left">
								<feature> 8 </feature>
								<threshold> -0.29561046 </threshold>
								<split pos="left">
									<output> 0.0 </output>
								</split>
								<split pos="right">
									<feature> 3 </feature>
									<threshold> -0.04367894 </threshold>
									<split pos="left">
										<output> 1.0041245222091675 </output>
									</split>
									<split pos="right">
										<output> 0.0 </output>
									</split>
								</split>
							</split>
							<split pos="right">
								<feature> 4 </feature>
								<threshold> -0.5483457 </threshold>
								<split pos="left">
									<feature> 9 </feature>
									<threshold> -0.17937991 </threshold>
									<split pos="left">
										<output> 0.0 </output>
									</split>
									<split pos="right">
										<output> 1.0041323900222778 </output>
									</split>
								</split>
								<split pos="right">
									<output> 0.0 </output>
								</split>
							</split>
						</split>
						<split pos="right">
							<output> -0.773198127746582 </output>
						</split>
					</split>
				</split>
				<split pos="right">
					<output> 1.0180718898773193 </output>
				</split>
			</split>
			<split pos="right">
				<output> -0.9523792266845703 </output>
			</split>
		</split>
	</tree>
	<tree id="27" weight="0.1">
		<split>
			<feature> 5 </feature>
			<threshold> -1.4935843 </threshold>
			<split pos="left">
				<feature> 1 </feature>
				<threshold> 2.2014577 </threshold>
				<split pos="left">
					<feature> 11 </feature>
					<threshold> -0.97889006 </threshold>
					<split pos="left">
						<feature> 9 </feature>
						<threshold> 0.12469578 </threshold>
						<split pos="left">
							<output> 0.34083160758018494 </output>
						</split>
						<split pos="right">
							<output> 1.0829076766967773 </output>
						</split>
					</split>
					<split pos="right">
						<feature> 5 </feature>
						<threshold> -1.8986729 </threshold>
						<split pos="left">
							<feature> 8 </feature>
							<threshold> -0.02136907 </threshold>
							<split pos="left">
								<feature> 8 </feature>
								<threshold> -0.29561046 </threshold>
								<split pos="left">
									<output> 0.0 </output>
								</split>
								<split pos="right">
									<output> 1.0034044981002808 </output>
								</split>
							</split>
							<split pos="right">
								<feature> 4 </feature>
								<threshold> -0.5483457 </threshold>
								<split pos="left">
									<feature> 9 </feature>
									<threshold> -0.17937991 </threshold>
									<split pos="left">
										<output> 0.0 </output>
									</split>
									<split pos="right">
										<output> 1.0034112930297852 </output>
									</split>
								</split>
								<split pos="right">
									<output> 0.0 </output>
								</split>
							</split>
						</split>
						<split pos="right">
							<output> -0.7279669642448425 </output>
						</split>
					</split>
				</split>
				<split pos="right">
					<output> 1.0148688554763794 </output>
				</split>
			</split>
			<split pos="right">
				<output> -0.937549352645874 </output>
			</split>
		</split>
	</tree>
	<tree id="28" weight="0.1">
		<split>
			<feature> 5 </feature>
			<threshold> -1.4935843 </threshold>
			<split pos="left">
				<feature> 1 </feature>
				<threshold> 2.2014577 </threshold>
				<split pos="left">
					<feature> 11 </feature>
					<threshold> -0.97889006 </threshold>
					<split pos="left">
						<feature> 2 </feature>
						<threshold> 0.110802144 </threshold>
						<split pos="left">
							<output> 0.26017850637435913 </output>
						</split>
						<split pos="right">
							<output> 1.0848045349121094 </output>
						</split>
					</split>
					<split pos="right">
						<feature> 5 </feature>
						<threshold> -1.8986729 </threshold>
						<split pos="left">
							<feature> 8 </feature>
							<threshold> -0.02136907 </threshold>
							<split pos="left">
								<feature> 8 </feature>
								<threshold> -0.29561046 </threshold>
								<split pos="left">
									<output> 0.0 </output>
								</split>
								<split pos="right">
									<output> 1.0028165578842163 </output>
								</split>
							</split>
							<split pos="right">
								<feature> 4 </feature>
								<threshold> -0.5483457 </threshold>
								<split pos="left">
									<feature> 9 </feature>
									<threshold> -0.17937991 </threshold>
									<split pos="left">
										<output> 0.0 </output>
									</split>
									<split pos="right">
										<output> 1.0028228759765625 </output>
									</split>
								</split>
								<split pos="right">
									<output> 0.0 </output>
								</split>
							</split>
						</split>
						<split pos="right">
							<output> -0.6763523817062378 </output>
						</split>
					</split>
				</split>
				<split pos="right">
					<output> 1.0122511386871338 </output>
				</split>
			</split>
			<split pos="right">
				<output> -0.9208593964576721 </output>
			</split>
		</split>
	</tree>
	<tree id="29" weight="0.1">
		<split>
			<feature> 5 </feature>
			<threshold> -1.4935843 </threshold>
			<split pos="left">
				<feature> 1 </feature>
				<threshold> 2.2014577 </threshold>
				<split pos="left">
					<feature> 11 </feature>
					<threshold> -0.97889006 </threshold>
					<split pos="left">
						<feature> 5 </feature>
						<threshold> -1.5070872 </threshold>
						<split pos="left">
							<feature> 1 </feature>
							<threshold> -0.45303312 </threshold>
							<split pos="left">
								<output> 0.6256037354469299 </output>
							</split>
							<split pos="right">
								<output> 1.0872998237609863 </output>
							</split>
						</split>
						<split pos="right">
							<output> -4.040452003479004 </output>
						</split>
					</split>
					<split pos="right">
						<feature> 5 </feature>
						<threshold> -1.8986729 </threshold>
						<split pos="left">
							<feature> 8 </feature>
							<threshold> -0.02136907 </threshold>
							<split pos="left">
								<feature> 8 </feature>
								<threshold> -0.29561046 </threshold>
								<split pos="left">
									<output> 0.0 </output>
								</split>
								<split pos="right">
									<output> 1.0023367404937744 </output>
								</split>
							</split>
							<split pos="right">
								<feature> 4 </feature>
								<threshold> -0.5483457 </threshold>
								<split pos="left">
									<output> 1.0023422241210938 </output>
								</split>
								<split pos="right">
									<output> 0.0 </output>
								</split>
							</split>
						</split>
						<split pos="right">
							<output> -0.6181038022041321 </output>
						</split>
					</split>
				</split>
				<split pos="right">
					<output> 1.0101109743118286 </output>
				</split>
			</split>
			<split pos="right">
				<output> -0.9019187092781067 </output>
			</split>
		</split>
	</tree>
	<tree id="30" weight="0.1">
		<split>
			<feature> 5 </feature>
			<threshold> -1.0344838 </threshold>
			<split pos="left">
				<feature> 1 </feature>
				<threshold> 2.2014577 </threshold>
				<split pos="left">
					<feature> 11 </feature>
					<threshold> -0.97889006 </threshold>
					<split pos="left">
						<feature> 5 </feature>
						<threshold> -1.6691227 </threshold>
						<split pos="left">
							<output> 1.0742965936660767 </output>
						</split>
						<split pos="right">
							<feature> 2 </feature>
							<threshold> -0.08839794 </threshold>
							<split pos="left">
								<output> 0.6992881894111633 </output>
							</split>
							<split pos="right">
								<output> -4.7154693603515625 </output>
							</split>
						</split>
					</split>
					<split pos="right">
						<feature> 5 </feature>
						<threshold> -1.8986729 </threshold>
						<split pos="left">
							<feature> 8 </feature>
							<threshold> -0.02136907 </threshold>
							<split pos="left">
								<output> 1.001944899559021 </output>
							</split>
							<split pos="right">
								<feature> 4 </feature>
								<threshold> -0.5483457 </threshold>
								<split pos="left">
									<output> 1.0019499063491821 </output>
								</split>
								<split pos="right">
									<output> 0.0 </output>
								</split>
							</split>
						</split>
						<split pos="right">
							<output> -0.2930305302143097 </output>
						</split>
					</split>
				</split>
				<split pos="right">
					<feature> 5 </feature>
					<threshold> -1.4935843 </threshold>
					<split pos="left">
						<output> 1.0083602666854858 </output>
					</split>
					<split pos="right">
						<output> -1.0074584484100342 </output>
					</split>
				</split>
			</split>
			<split pos="right">
				<output> -1.0064005851745605 </output>
			</split>
		</split>
	</tree>
	<tree id="31" weight="0.1">
		<split>
			<feature> 5 </feature>
			<threshold> -1.0344838 </threshold>
			<split pos="left">
				<feature> 1 </feature>
				<threshold> 2.2014577 </threshold>
				<split pos="left">
					<feature> 11 </feature>
					<threshold> -0.97889006 </threshold>
					<split pos="left">
						<feature> 5 </feature>
						<threshold> -1.6691227 </threshold>
						<split pos="left">
							<output> 1.0710152387619019 </output>
						</split>
						<split pos="right">
							<feature> 2 </feature>
							<threshold> -0.08839794 </threshold>
							<split pos="left">
								<output> 0.6174420118331909 </output>
							</split>
							<split pos="right">
								<output> -3.578643560409546 </output>
							</split>
						</split>
					</split>
					<split pos="right">
						<feature> 5 </feature>
						<threshold> -1.8986729 </threshold>
						<split pos="left">
							<feature> 8 </feature>
							<threshold> -0.02136907 </threshold>
							<split pos="left">
								<output> 1.0016217231750488 </output>
							</split>
							<split pos="right">
								<feature> 4 </feature>
								<threshold> -0.5483457 </threshold>
								<split pos="left">
									<output> 1.001626968383789 </output>
								</split>
								<split pos="right">
									<output> 0.0 </output>
								</split>
							</split>
						</split>
						<split pos="right">
							<output> -0.16114813089370728 </output>
						</split>
					</split>
				</split>
				<split pos="right">
					<feature> 5 </feature>
					<threshold> -1.4935843 </threshold>
					<split pos="left">
						<output> 1.0068734884262085 </output>
					</split>
					<split pos="right">
						<output> -1.0062644481658936 </output>
					</split>
				</split>
			</split>
			<split pos="right">
				<output> -1.0048668384552002 </output>
			</split>
		</split>
	</tree>
	<tree id="32" weight="0.1">
		<split>
			<feature> 5 </feature>
			<threshold> -1.0344838 </threshold>
			<split pos="left">
				<feature> 1 </feature>
				<threshold> 2.2014577 </threshold>
				<split pos="left">
					<feature> 5 </feature>
					<threshold> -1.8986729 </threshold>
					<split pos="left">
						<feature> 8 </feature>
						<threshold> -0.02136907 </threshold>
						<split pos="left">
							<output> 1.0013623237609863 </output>
						</split>
						<split pos="right">
							<feature> 4 </feature>
							<threshold> -0.5483457 </threshold>
							<split pos="left">
								<output> 1.0013679265975952 </output>
							</split>
							<split pos="right">
								<output> 0.0 </output>
							</split>
						</split>
					</split>
					<split pos="right">
						<feature> 11 </feature>
						<threshold> -0.97889006 </threshold>
						<split pos="left">
							<feature> 5 </feature>
							<threshold> -1.6691227 </threshold>
							<split pos="left">
								<output> 1.072370171546936 </output>
							</split>
							<split pos="right">
								<feature> 2 </feature>
								<threshold> -0.08839794 </threshold>
								<split pos="left">
									<feature> 7 </feature>
									<threshold> 0.007166803 </threshold>
									<split pos="left">
										<output> 0.4570501446723938 </output>
									</split>
									<split pos="right">
										<output> 1.0572078227996826 </output>
									</split>
								</split>
								<split pos="right">
									<output> -2.8692286014556885 </output>
								</split>
							</split>
						</split>
						<split pos="right">
							<output> -0.07041236013174057 </output>
						</split>
					</split>
				</split>
				<split pos="right">
					<output> 0.9765437245368958 </output>
				</split>
			</split>
			<split pos="right">
				<output> -1.0037956237792969 </output>
			</split>
		</split>
	</tree>
	<tree id="33" weight="0.1">
		<split>
			<feature> 5 </feature>
			<threshold> -1.0344838 </threshold>
			<split pos="left">
				<feature> 1 </feature>
				<threshold> 2.2014577 </threshold>
				<split pos="left">
					<feature> 5 </feature>
					<threshold> -1.6691227 </threshold>
					<split pos="left">
						<feature> 11 </feature>
						<threshold> -0.97889006 </threshold>
						<split pos="left">
							<output> 1.0751515626907349 </output>
						</split>
						<split pos="right">
							<feature> 8 </feature>
							<threshold> -0.02136907 </threshold>
							<split pos="left">
								<output> 1.0470435619354248 </output>
							</split>
							<split pos="right">
								<feature> 4 </feature>
								<threshold> -0.5483457 </threshold>
								<split pos="left">
									<output> 1.001159429550171 </output>
								</split>
								<split pos="right">
									<output> 0.0 </output>
								</split>
							</split>
						</split>
					</split>
					<split pos="right">
						<feature> 5 </feature>
						<threshold> -1.6556197 </threshold>
						<split pos="left">
							<output> -0.8509140014648438 </output>
						</split>
						<split pos="right">
							<feature> 11 </feature>
							<threshold> -0.97889006 </threshold>
							<split pos="left">
								<feature> 5 </feature>
								<threshold> -1.5070872 </threshold>
								<split pos="left">
									<output> 1.0613243579864502 </output>
								</split>
								<split pos="right">
									<output> -0.06483514606952667 </output>
								</split>
							</split>
							<split pos="right">
								<output> -0.11265319585800171 </output>
							</split>
						</split>
					</split>
				</split>
				<split pos="right">
					<output> 0.971969723701477 </output>
				</split>
			</split>
			<split pos="right">
				<output> -1.002971887588501 </output>
			</split>
		</split>
	</tree>
	<tree id="34" weight="0.1">
		<split>
			<feature> 5 </feature>
			<threshold> -1.0344838 </threshold>
			<split pos="left">
				<feature> 1 </feature>
				<threshold> 2.2014577 </threshold>
				<split pos="left">
					<feature> 5 </feature>
					<threshold> -1.6691227 </threshold>
					<split pos="left">
						<feature> 11 </feature>
						<threshold> -0.97889006 </threshold>
						<split pos="left">
							<output> 1.0708165168762207 </output>
						</split>
						<split pos="right">
							<feature> 8 </feature>
							<threshold> -0.29561046 </threshold>
							<split pos="left">
								<output> 0.0 </output>
							</split>
							<split pos="right">
								<feature> 10 </feature>
								<threshold> 0.5295711 </threshold>
								<split pos="left">
									<output> 1.038353681564331 </output>
								</split>
								<split pos="right">
									<output> 1.0009831190109253 </output>
								</split>
							</split>
						</split>
					</split>
					<split pos="right">
						<feature> 5 </feature>
						<threshold> -1.6556197 </threshold>
						<split pos="left">
							<output> -0.7975268363952637 </output>
						</split>
						<split pos="right">
							<feature> 12 </feature>
							<threshold> -0.30399638 </threshold>
							<split pos="left">
								<feature> 2 </feature>
								<threshold> -0.021997914 </threshold>
								<split pos="left">
									<output> 1.4166676998138428 </output>
								</split>
								<split pos="right">
									<output> -2.091634511947632 </output>
								</split>
							</split>
							<split pos="right">
								<output> -0.7594652771949768 </output>
							</split>
						</split>
					</split>
				</split>
				<split pos="right">
					<output> 0.9680203199386597 </output>
				</split>
			</split>
			<split pos="right">
				<output> -1.0018996000289917 </output>
			</split>
		</split>
	</tree>
	<tree id="35" weight="0.1">
		<split>
			<feature> 5 </feature>
			<threshold> -1.0344838 </threshold>
			<split pos="left">
				<feature> 1 </feature>
				<threshold> 2.2014577 </threshold>
				<split pos="left">
					<feature> 5 </feature>
					<threshold> -1.0884956 </threshold>
					<split pos="left">
						<feature> 5 </feature>
						<threshold> -1.6691227 </threshold>
						<split pos="left">
							<feature> 11 </feature>
							<threshold> -0.97889006 </threshold>
							<split pos="left">
								<output> 1.0680731534957886 </output>
							</split>
							<split pos="right">
								<feature> 8 </feature>
								<threshold> -0.29561046 </threshold>
								<split pos="left">
									<output> 0.0 </output>
								</split>
								<split pos="right">
									<feature> 3 </feature>
									<threshold> -0.04367894 </threshold>
									<split pos="left">
										<output> 1.012855052947998 </output>
									</split>
									<split pos="right">
										<output> 19.134069442749023 </output>
									</split>
								</split>
							</split>
						</split>
						<split pos="right">
							<feature> 5 </feature>
							<threshold> -1.6556197 </threshold>
							<split pos="left">
								<output> -0.7115331888198853 </output>
							</split>
							<split pos="right">
								<feature> 1 </feature>
								<threshold> 0.8023092 </threshold>
								<split pos="left">
									<output> 0.37517526745796204 </output>
								</split>
								<split pos="right">
									<output> -1.406324028968811 </output>
								</split>
							</split>
						</split>
					</split>
					<split pos="right">
						<output> 11.006563186645508 </output>
					</split>
				</split>
				<split pos="right">
					<output> 0.9600327610969543 </output>
				</split>
			</split>
			<split pos="right">
				<output> -1.0012775659561157 </output>
			</split>
		</split>
	</tree>
	<tree id="36" weight="0.1">
		<split>
			<feature> 5 </feature>
			<threshold> -1.6691227 </threshold>
			<split pos="left">
				<feature> 5 </feature>
				<threshold> -1.6961286 </threshold>
				<split pos="left">
					<output> 1.0006781816482544 </output>
				</split>
				<split pos="right">
					<feature> 4 </feature>
					<threshold> -0.09899339 </threshold>
					<split pos="left">
						<output> 4.408061504364014 </output>
					</split>
					<split pos="right">
						<output> 1.1086691617965698 </output>
					</split>
				</split>
			</split>
			<split pos="right">
				<feature> 5 </feature>
				<threshold> -1.6556197 </threshold>
				<split pos="left">
					<feature> 6 </feature>
					<threshold> -2.160864 </threshold>
					<split pos="left">
						<output> 1.2481982707977295 </output>
					</split>
					<split pos="right">
						<feature> 3 </feature>
						<threshold> -0.04367894 </threshold>
						<split pos="left">
							<output> -3.813915252685547 </output>
						</split>
						<split pos="right">
							<output> 0.9841278195381165 </output>
						</split>
					</split>
				</split>
				<split pos="right">
					<feature> 1 </feature>
					<threshold> 2.2014577 </threshold>
					<split pos="left">
						<feature> 6 </feature>
						<threshold> -2.160864 </threshold>
						<split pos="left">
							<output> -0.6250406503677368 </output>
						</split>
						<split pos="right">
							<output> -0.6116809844970703 </output>
						</split>
					</split>
					<split pos="right">
						<feature> 5 </feature>
						<threshold> -1.4935843 </threshold>
						<split pos="left">
							<output> 1.0027990341186523 </output>
						</split>
						<split pos="right">
							<output> -1.0029202699661255 </output>
						</split>
					</split>
				</split>
			</split>
		</split>
	</tree>
	<tree id="37" weight="0.1">
		<split>
			<feature> 5 </feature>
			<threshold> -1.0344838 </threshold>
			<split pos="left">
				<feature> 1 </feature>
				<threshold> 0.8023092 </threshold>
				<split pos="left">
					<feature> 12 </feature>
					<threshold> -0.30399638 </threshold>
					<split pos="left">
						<feature> 9 </feature>
						<threshold> 0.023337215 </threshold>
						<split pos="left">
							<feature> 3 </feature>
							<threshold> 0.66735494 </threshold>
							<split pos="left">
								<feature> 7 </feature>
								<threshold> 0.007166803 </threshold>
								<split pos="left">
									<feature> 6 </feature>
									<threshold> -2.160864 </threshold>
									<split pos="left">
										<output> 1.319093942642212 </output>
									</split>
									<split pos="right">
										<feature> 5 </feature>
										<threshold> -1.6556197 </threshold>
										<split pos="left">
											<output> -1.2250503301620483 </output>
										</split>
										<split pos="right">
											<output> 1.4651371240615845 </output>
										</split>
									</split>
								</split>
								<split pos="right">
									<output> 1.0509384870529175 </output>
								</split>
							</split>
							<split pos="right">
								<output> 1.0520466566085815 </output>
							</split>
						</split>
						<split pos="right">
							<output> -3.7010045051574707 </output>
						</split>
					</split>
					<split pos="right">
						<output> 0.5427606105804443 </output>
					</split>
				</split>
				<split pos="right">
					<feature> 5 </feature>
					<threshold> -1.4935843 </threshold>
					<split pos="left">
						<output> 1.0161386728286743 </output>
					</split>
					<split pos="right">
						<output> 1.5398656129837036 </output>
					</split>
				</split>
			</split>
			<split pos="right">
				<output> -1.0051896572113037 </output>
			</split>
		</split>
	</tree>
	<tree id="38" weight="0.1">
		<split>
			<feature> 5 </feature>
			<threshold> -1.6691227 </threshold>
			<split pos="left">
				<feature> 11 </feature>
				<threshold> -0.97889006 </threshold>
				<split pos="left">
					<output> 1.0323610305786133 </output>
				</split>
				<split pos="right">
					<feature> 5 </feature>
					<threshold> -1.6961286 </threshold>
					<split pos="left">
						<output> 1.0005464553833008 </output>
					</split>
					<split pos="right">
						<output> 1.226393222808838 </output>
					</split>
				</split>
			</split>
			<split pos="right">
				<feature> 5 </feature>
				<threshold> -1.6556197 </threshold>
				<split pos="left">
					<feature> 3 </feature>
					<threshold> -0.04367894 </threshold>
					<split pos="left">
						<feature> 6 </feature>
						<threshold> -2.160864 </threshold>
						<split pos="left">
							<output> 0.9670421481132507 </output>
						</split>
						<split pos="right">
							<output> -2.5785036087036133 </output>
						</split>
					</split>
					<split pos="right">
						<output> 1.2761123180389404 </output>
					</split>
				</split>
				<split pos="right">
					<feature> 1 </feature>
					<threshold> 2.2014577 </threshold>
					<split pos="left">
						<feature> 6 </feature>
						<threshold> -2.160864 </threshold>
						<split pos="left">
							<feature> 9 </feature>
							<threshold> 0.023337215 </threshold>
							<split pos="left">
								<output> 0.07668010145425797 </output>
							</split>
							<split pos="right">
								<output> -2.167602300643921 </output>
							</split>
						</split>
						<split pos="right">
							<output> -0.531883180141449 </output>
						</split>
					</split>
					<split pos="right">
						<output> 0.743251383304596 </output>
					</split>
				</split>
			</split>
		</split>
	</tree>
	<tree id="39" weight="0.1">
		<split>
			<feature> 5 </feature>
			<threshold> -1.0344838 </threshold>
			<split pos="left">
				<feature> 1 </feature>
				<threshold> 0.8023092 </threshold>
				<split pos="left">
					<feature> 12 </feature>
					<threshold> -0.30399638 </threshold>
					<split pos="left">
						<feature> 9 </feature>
						<threshold> 0.023337215 </threshold>
						<split pos="left">
							<feature> 3 </feature>
							<threshold> 0.66735494 </threshold>
							<split pos="left">
								<feature> 7 </feature>
								<threshold> -0.11647857 </threshold>
								<split pos="left">
									<feature> 5 </feature>
									<threshold> -1.6556197 </threshold>
									<split pos="left">
										<feature> 3 </feature>
										<threshold> -0.04367894 </threshold>
										<split pos="left">
											<feature> 11 </feature>
											<threshold> -0.97889006 </threshold>
											<split pos="left">
												<output> -1.139325737953186 </output>
											</split>
											<split pos="right">
												<output> 0.7688782811164856 </output>
											</split>
										</split>
										<split pos="right">
											<output> 1.2844921350479126 </output>
										</split>
									</split>
									<split pos="right">
										<output> 1.2754031419754028 </output>
									</split>
								</split>
								<split pos="right">
									<output> 1.360597014427185 </output>
								</split>
							</split>
							<split pos="right">
								<output> 1.0420068502426147 </output>
							</split>
						</split>
						<split pos="right">
							<output> -2.348804235458374 </output>
						</split>
					</split>
					<split pos="right">
						<output> 0.5032352209091187 </output>
					</split>
				</split>
				<split pos="right">
					<output> 1.0479044914245605 </output>
				</split>
			</split>
			<split pos="right">
				<output> -1.004745364189148 </output>
			</split>
		</split>
	</tree>
	<tree id="40" weight="0.1">
		<split>
			<feature> 5 </feature>
			<threshold> -1.6691227 </threshold>
			<split pos="left">
				<feature> 12 </feature>
				<threshold> -0.30399638 </threshold>
				<split pos="left">
					<output> 1.0968713760375977 </output>
				</split>
				<split pos="right">
					<output> 1.0004531145095825 </output>
				</split>
			</split>
			<split pos="right">
				<feature> 5 </feature>
				<threshold> -1.6556197 </threshold>
				<split pos="left">
					<feature> 6 </feature>
					<threshold> -2.160864 </threshold>
					<split pos="left">
						<output> 1.1993039846420288 </output>
					</split>
					<split pos="right">
						<feature> 3 </feature>
						<threshold> -0.04367894 </threshold>
						<split pos="left">
							<output> -1.9013705253601074 </output>
						</split>
						<split pos="right">
							<output> 0.9535362124443054 </output>
						</split>
					</split>
				</split>
				<split pos="right">
					<feature> 1 </feature>
					<threshold> 2.2014577 </threshold>
					<split pos="left">
						<feature> 5 </feature>
						<threshold> -1.0344838 </threshold>
						<split pos="left">
							<feature> 11 </feature>
							<threshold> -0.97889006 </threshold>
							<split pos="left">
								<feature> 5 </feature>
								<threshold> -1.5070872 </threshold>
								<split pos="left">
									<output> 1.0242515802383423 </output>
								</split>
								<split pos="right">
									<output> 0.3096882998943329 </output>
								</split>
							</split>
							<split pos="right">
								<output> -0.16239018738269806 </output>
							</split>
						</split>
						<split pos="right">
							<output> -1.0048611164093018 </output>
						</split>
					</split>
					<split pos="right">
						<output> 0.7356559634208679 </output>
					</split>
				</split>
			</split>
		</split>
	</tree>
	<tree id="41" weight="0.1">
		<split>
			<feature> 5 </feature>
			<threshold> -1.6691227 </threshold>
			<split pos="left">
				<feature> 5 </feature>
				<threshold> -1.6961286 </threshold>
				<split pos="left">
					<output> 1.0003987550735474 </output>
				</split>
				<split pos="right">
					<output> 1.0970910787582397 </output>
				</split>
			</split>
			<split pos="right">
				<feature> 5 </feature>
				<threshold> -1.6556197 </threshold>
				<split pos="left">
					<feature> 6 </feature>
					<threshold> -2.160864 </threshold>
					<split pos="left">
						<output> 1.1702817678451538 </output>
					</split>
					<split pos="right">
						<feature> 3 </feature>
						<threshold> -0.04367894 </threshold>
						<split pos="left">
							<output> -1.5515083074569702 </output>
						</split>
						<split pos="right">
							<output> 0.9414381384849548 </output>
						</split>
					</split>
				</split>
				<split pos="right">
					<feature> 1 </feature>
					<threshold> 2.2014577 </threshold>
					<split pos="left">
						<feature> 6 </feature>
						<threshold> -2.160864 </threshold>
						<split pos="left">
							<feature> 5 </feature>
							<threshold> -1.5205902 </threshold>
							<split pos="left">
								<output> 1.1399085521697998 </output>
							</split>
							<split pos="right">
								<feature> 5 </feature>
								<threshold> -1.4935843 </threshold>
								<split pos="left">
									<output> -2.02961802482605 </output>
								</split>
								<split pos="right">
									<output> -0.436602920293808 </output>
								</split>
							</split>
						</split>
						<split pos="right">
							<output> -0.5014455318450928 </output>
						</split>
					</split>
					<split pos="right">
						<output> 0.7030826807022095 </output>
					</split>
				</split>
			</split>
		</split>
	</tree>
	<tree id="42" weight="0.1">
		<split>
			<feature> 5 </feature>
			<threshold> -1.6691227 </threshold>
			<split pos="left">
				<feature> 12 </feature>
				<threshold> -0.30399638 </threshold>
				<split pos="left">
					<feature> 3 </feature>
					<threshold> -0.04367894 </threshold>
					<split pos="left">
						<output> 1.0303479433059692 </output>
					</split>
					<split pos="right">
						<output> 1.043581247329712 </output>
					</split>
				</split>
				<split pos="right">
					<output> 1.0003429651260376 </output>
				</split>
			</split>
			<split pos="right">
				<feature> 1 </feature>
				<threshold> 2.2014577 </threshold>
				<split pos="left">
					<feature> 12 </feature>
					<threshold> -0.30399638 </threshold>
					<split pos="left">
						<feature> 5 </feature>
						<threshold> -1.5070872 </threshold>
						<split pos="left">
							<feature> 7 </feature>
							<threshold> -0.11647857 </threshold>
							<split pos="left">
								<feature> 5 </feature>
								<threshold> -1.5205902 </threshold>
								<split pos="left">
									<output> 0.004335950594395399 </output>
								</split>
								<split pos="right">
									<output> 1.0175219774246216 </output>
								</split>
							</split>
							<split pos="right">
								<output> 1.0183175802230835 </output>
							</split>
						</split>
						<split pos="right">
							<feature> 5 </feature>
							<threshold> -1.4935843 </threshold>
							<split pos="left">
								<output> -1.5430089235305786 </output>
							</split>
							<split pos="right">
								<output> -0.5921666622161865 </output>
							</split>
						</split>
					</split>
					<split pos="right">
						<output> -0.9586461186408997 </output>
					</split>
				</split>
				<split pos="right">
					<output> 0.6824681162834167 </output>
				</split>
			</split>
		</split>
	</tree>
	<tree id="43" weight="0.1">
		<split>
			<feature> 5 </feature>
			<threshold> -1.6691227 </threshold>
			<split pos="left">
				<feature> 5 </feature>
				<threshold> -1.6961286 </threshold>
				<split pos="left">
					<output> 1.0002820491790771 </output>
				</split>
				<split pos="right">
					<feature> 3 </feature>
					<threshold> -0.04367894 </threshold>
					<split pos="left">
						<output> 0.9982601404190063 </output>
					</split>
					<split pos="right">
						<output> 1.0387954711914062 </output>
					</split>
				</split>
			</split>
			<split pos="right">
				<feature> 5 </feature>
				<threshold> -1.6556197 </threshold>
				<split pos="left">
					<feature> 6 </feature>
					<threshold> -2.160864 </threshold>
					<split pos="left">
						<output> 1.0556747913360596 </output>
					</split>
					<split pos="right">
						<feature> 3 </feature>
						<threshold> -0.04367894 </threshold>
						<split pos="left">
							<feature> 11 </feature>
							<threshold> -0.97889006 </threshold>
							<split pos="left">
								<output> -1.4624305963516235 </output>
							</split>
							<split pos="right">
								<output> -1.0089110136032104 </output>
							</split>
						</split>
						<split pos="right">
							<output> 0.9092170000076294 </output>
						</split>
					</split>
				</split>
				<split pos="right">
					<feature> 5 </feature>
					<threshold> -1.3045429 </threshold>
					<split pos="left">
						<feature> 11 </feature>
						<threshold> -0.97889006 </threshold>
						<split pos="left">
							<output> 1.0986032485961914 </output>
						</split>
						<split pos="right">
							<output> 0.5327261090278625 </output>
						</split>
					</split>
					<split pos="right">
						<output> -0.8668901324272156 </output>
					</split>
				</split>
			</split>
		</split>
	</tree>
	<tree id="44" weight="0.1">
		<split>
			<feature> 5 </feature>
			<threshold> -1.6691227 </threshold>
			<split pos="left">
				<feature> 5 </feature>
				<threshold> -1.6961286 </threshold>
				<split pos="left">
					<output> 1.0002672672271729 </output>
				</split>
				<split pos="right">
					<output> 1.0162814855575562 </output>
				</split>
			</split>
			<split pos="right">
				<feature> 1 </feature>
				<threshold> 2.2014577 </threshold>
				<split pos="left">
					<feature> 12 </feature>
					<threshold> -0.30399638 </threshold>
					<split pos="left">
						<feature> 5 </feature>
						<threshold> -1.5070872 </threshold>
						<split pos="left">
							<feature> 7 </feature>
							<threshold> -0.11647857 </threshold>
							<split pos="left">
								<feature> 5 </feature>
								<threshold> -1.5205902 </threshold>
								<split pos="left">
									<feature> 6 </feature>
									<threshold> -2.160864 </threshold>
									<split pos="left">
										<output> 1.1131384372711182 </output>
									</split>
									<split pos="right">
										<output> -0.3713728189468384 </output>
									</split>
								</split>
								<split pos="right">
									<output> 1.0138980150222778 </output>
								</split>
							</split>
							<split pos="right">
								<output> 1.0144566297531128 </output>
							</split>
						</split>
						<split pos="right">
							<feature> 5 </feature>
							<threshold> -1.4935843 </threshold>
							<split pos="left">
								<output> -1.6933215856552124 </output>
							</split>
							<split pos="right">
								<output> -0.45859602093696594 </output>
							</split>
						</split>
					</split>
					<split pos="right">
						<output> -0.9404513239860535 </output>
					</split>
				</split>
				<split pos="right">
					<output> 0.6451916098594666 </output>
				</split>
			</split>
		</split>
	</tree>
	<tree id="45" weight="0.1">
		<split>
			<feature> 5 </feature>
			<threshold> -1.6691227 </threshold>
			<split pos="left">
				<feature> 12 </feature>
				<threshold> -0.30399638 </threshold>
				<split pos="left">
					<output> 1.0074174404144287 </output>
				</split>
				<split pos="right">
					<output> 1.0002201795578003 </output>
				</split>
			</split>
			<split pos="right">
				<feature> 2 </feature>
				<threshold> 2.766804 </threshold>
				<split pos="left">
					<feature> 5 </feature>
					<threshold> -1.6556197 </threshold>
					<split pos="left">
						<feature> 9 </feature>
						<threshold> -0.17937991 </threshold>
						<split pos="left">
							<feature> 6 </feature>
							<threshold> -2.160864 </threshold>
							<split pos="left">
								<output> 1.026086688041687 </output>
							</split>
							<split pos="right">
								<output> -1.259742021560669 </output>
							</split>
						</split>
						<split pos="right">
							<output> 1.0157760381698608 </output>
						</split>
					</split>
					<split pos="right">
						<feature> 6 </feature>
						<threshold> -2.160864 </threshold>
						<split pos="left">
							<feature> 5 </feature>
							<threshold> -1.4935843 </threshold>
							<split pos="left">
								<feature> 5 </feature>
								<threshold> -1.5205902 </threshold>
								<split pos="left">
									<output> 1.0734708309173584 </output>
								</split>
								<split pos="right">
									<output> -1.4987109899520874 </output>
								</split>
							</split>
							<split pos="right">
								<output> -0.4867077171802521 </output>
							</split>
						</split>
						<split pos="right">
							<output> -0.3668611943721771 </output>
						</split>
					</split>
				</split>
				<split pos="right">
					<output> 0.8953160047531128 </output>
				</split>
			</split>
		</split>
	</tree>
	<tree id="46" weight="0.1">
		<split>
			<feature> 5 </feature>
			<threshold> -1.0344838 </threshold>
			<split pos="left">
				<feature> 1 </feature>
				<threshold> 0.8023092 </threshold>
				<split pos="left">
					<feature> 12 </feature>
					<threshold> -0.30399638 </threshold>
					<split pos="left">
						<feature> 4 </feature>
						<threshold> -0.09899339 </threshold>
						<split pos="left">
							<feature> 9 </feature>
							<threshold> 0.023337215 </threshold>
							<split pos="left">
								<feature> 3 </feature>
								<threshold> 0.66735494 </threshold>
								<split pos="left">
									<feature> 7 </feature>
									<threshold> -0.11647857 </threshold>
									<split pos="left">
										<feature> 5 </feature>
										<threshold> -1.6421168 </threshold>
										<split pos="left">
											<feature> 9 </feature>
											<threshold> -0.17937991 </threshold>
											<split pos="left">
												<output> -0.5343650579452515 </output>
											</split>
											<split pos="right">
												<output> 1.0134035348892212 </output>
											</split>
										</split>
										<split pos="right">
											<output> 0.768174946308136 </output>
										</split>
									</split>
									<split pos="right">
										<output> 1.4175862073898315 </output>
									</split>
								</split>
								<split pos="right">
									<output> 1.022719144821167 </output>
								</split>
							</split>
							<split pos="right">
								<output> -1.2512797117233276 </output>
							</split>
						</split>
						<split pos="right">
							<output> 1.0319058895111084 </output>
						</split>
					</split>
					<split pos="right">
						<output> 0.39086073637008667 </output>
					</split>
				</split>
				<split pos="right">
					<output> 0.9615026116371155 </output>
				</split>
			</split>
			<split pos="right">
				<output> -1.005709171295166 </output>
			</split>
		</split>
	</tree>
	<tree id="47" weight="0.1">
		<split>
			<feature> 5 </feature>
			<threshold> -1.6691227 </threshold>
			<split pos="left">
				<feature> 5 </feature>
				<threshold> -1.6961286 </threshold>
				<split pos="left">
					<output> 1.000195026397705 </output>
				</split>
				<split pos="right">
					<output> 0.9972584247589111 </output>
				</split>
			</split>
			<split pos="right">
				<feature> 5 </feature>
				<threshold> -1.6556197 </threshold>
				<split pos="left">
					<feature> 6 </feature>
					<threshold> -2.160864 </threshold>
					<split pos="left">
						<output> 1.0307668447494507 </output>
					</split>
					<split pos="right">
						<feature> 3 </feature>
						<threshold> -0.04367894 </threshold>
						<split pos="left">
							<feature> 11 </feature>
							<threshold> -0.97889006 </threshold>
							<split pos="left">
								<output> -1.0963255167007446 </output>
							</split>
							<split pos="right">
								<output> -1.0043282508850098 </output>
							</split>
						</split>
						<split pos="right">
							<output> 0.9014169573783875 </output>
						</split>
					</split>
				</split>
				<split pos="right">
					<feature> 5 </feature>
					<threshold> -1.0344838 </threshold>
					<split pos="left">
						<feature> 11 </feature>
						<threshold> -0.97889006 </threshold>
						<split pos="left">
							<output> 1.109997034072876 </output>
						</split>
						<split pos="right">
							<feature> 1 </feature>
							<threshold> 0.8023092 </threshold>
							<split pos="left">
								<output> -0.27787861227989197 </output>
							</split>
							<split pos="right">
								<output> 0.9312732219696045 </output>
							</split>
						</split>
					</split>
					<split pos="right">
						<output> -1.0057750940322876 </output>
					</split>
				</split>
			</split>
		</split>
	</tree>
	<tree id="48" weight="0.1">
		<split>
			<feature> 5 </feature>
			<threshold> -1.6691227 </threshold>
			<split pos="left">
				<feature> 5 </feature>
				<threshold> -1.6961286 </threshold>
				<split pos="left">
					<output> 1.0001733303070068 </output>
				</split>
				<split pos="right">
					<output> 0.991683840751648 </output>
				</split>
			</split>
			<split pos="right">
				<feature> 5 </feature>
				<threshold> -1.6556197 </threshold>
				<split pos="left">
					<feature> 9 </feature>
					<threshold> -0.17937991 </threshold>
					<split pos="left">
						<feature> 6 </feature>
						<threshold> -2.160864 </threshold>
						<split pos="left">
							<output> 1.0268646478652954 </output>
						</split>
						<split pos="right">
							<output> -0.9533913731575012 </output>
						</split>
					</split>
					<split pos="right">
						<output> 1.0125186443328857 </output>
					</split>
				</split>
				<split pos="right">
					<feature> 6 </feature>
					<threshold> -2.160864 </threshold>
					<split pos="left">
						<feature> 5 </feature>
						<threshold> -1.4935843 </threshold>
						<split pos="left">
							<feature> 5 </feature>
							<threshold> -1.5205902 </threshold>
							<split pos="left">
								<output> 1.0471134185791016 </output>
							</split>
							<split pos="right">
								<output> -1.3766783475875854 </output>
							</split>
						</split>
						<split pos="right">
							<output> -0.3408244550228119 </output>
						</split>
					</split>
					<split pos="right">
						<feature> 5 </feature>
						<threshold> -1.3045429 </threshold>
						<split pos="left">
							<output> 0.7322089672088623 </output>
						</split>
						<split pos="right">
							<output> -0.7811253666877747 </output>
						</split>
					</split>
				</split>
			</split>
		</split>
	</tree>
	<tree id="49" weight="0.1">
		<split>
			<feature> 5 </feature>
			<threshold> -1.574602 </threshold>
			<split pos="left">
				<feature> 12 </feature>
				<threshold> -0.30399638 </threshold>
				<split pos="left">
					<feature> 5 </feature>
					<threshold> -1.6691227 </threshold>
					<split pos="left">
						<output> 0.9878377914428711 </output>
					</split>
					<split pos="right">
						<output> 1.3641077280044556 </output>
					</split>
				</split>
				<split pos="right">
					<output> 1.0001730918884277 </output>
				</split>
			</split>
			<split pos="right">
				<feature> 11 </feature>
				<threshold> -0.97889006 </threshold>
				<split pos="left">
					<feature> 5 </feature>
					<threshold> -1.4935843 </threshold>
					<split pos="left">
						<feature> 1 </feature>
						<threshold> -0.45303312 </threshold>
						<split pos="left">
							<feature> 5 </feature>
							<threshold> -1.5070872 </threshold>
							<split pos="left">
								<output> 1.0085420608520508 </output>
							</split>
							<split pos="right">
								<output> -1.195338487625122 </output>
							</split>
						</split>
						<split pos="right">
							<output> -3.9034714698791504 </output>
						</split>
					</split>
					<split pos="right">
						<output> 0.6443812847137451 </output>
					</split>
				</split>
				<split pos="right">
					<feature> 2 </feature>
					<threshold> 2.766804 </threshold>
					<split pos="left">
						<feature> 5 </feature>
						<threshold> -1.0344838 </threshold>
						<split pos="left">
							<output> 0.4453883469104767 </output>
						</split>
						<split pos="right">
							<output> -0.9851409792900085 </output>
						</split>
					</split>
					<split pos="right">
						<output> 0.9407436847686768 </output>
					</split>
				</split>
			</split>
		</split>
	</tree>
	<tree id="50" weight="0.1">
		<split>
			<feature> 5 </feature>
			<threshold> -1.6691227 </threshold>
			<split pos="left">
				<feature> 5 </feature>
				<threshold> -1.6961286 </threshold>
				<split pos="left">
					<output> 1.0001702308654785 </output>
				</split>
				<split pos="right">
					<output> 0.9805271625518799 </output>
				</split>
			</split>
			<split pos="right">
				<feature> 5 </feature>
				<threshold> -1.6556197 </threshold>
				<split pos="left">
					<feature> 11 </feature>
					<threshold> -0.97889006 </threshold>
					<split pos="left">
						<feature> 6 </feature>
						<threshold> -2.160864 </threshold>
						<split pos="left">
							<output> 1.0105897188186646 </output>
						</split>
						<split pos="right">
							<feature> 3 </feature>
							<threshold> -0.04367894 </threshold>
							<split pos="left">
								<output> -1.0906133651733398 </output>
							</split>
							<split pos="right">
								<output> 1.0104855298995972 </output>
							</split>
						</split>
					</split>
					<split pos="right">
						<output> 0.2985076308250427 </output>
					</split>
				</split>
				<split pos="right">
					<feature> 5 </feature>
					<threshold> -1.0344838 </threshold>
					<split pos="left">
						<feature> 11 </feature>
						<threshold> -0.97889006 </threshold>
						<split pos="left">
							<output> 1.1245813369750977 </output>
						</split>
						<split pos="right">
							<feature> 1 </feature>
							<threshold> 0.8023092 </threshold>
							<split pos="left">
								<output> -0.12221333384513855 </output>
							</split>
							<split pos="right">
								<output> 0.8976393342018127 </output>
							</split>
						</split>
					</split>
					<split pos="right">
						<output> -1.0059545040130615 </output>
					</split>
				</split>
			</split>
		</split>
	</tree>
	<tree id="51" weight="0.1">
		<split>
			<feature> 6 </feature>
			<threshold> -2.160864 </threshold>
			<split pos="left">
				<feature> 5 </feature>
				<threshold> -1.6691227 </threshold>
				<split pos="left">
					<output> -1.2508960962295532 </output>
				</split>
				<split pos="right">
					<feature> 9 </feature>
					<threshold> 0.023337215 </threshold>
					<split pos="left">
						<output> 0.31134337186813354 </output>
					</split>
					<split pos="right">
						<feature> 5 </feature>
						<threshold> -1.4935843 </threshold>
						<split pos="left">
							<output> -1.169254183769226 </output>
						</split>
						<split pos="right">
							<output> 2.2793474197387695 </output>
						</split>
					</split>
				</split>
			</split>
			<split pos="right">
				<feature> 5 </feature>
				<threshold> -1.0344838 </threshold>
				<split pos="left">
					<feature> 12 </feature>
					<threshold> -0.30399638 </threshold>
					<split pos="left">
						<feature> 5 </feature>
						<threshold> -1.6691227 </threshold>
						<split pos="left">
							<output> 1.0469263792037964 </output>
						</split>
						<split pos="right">
							<feature> 7 </feature>
							<threshold> 0.3781029 </threshold>
							<split pos="left">
								<feature> 5 </feature>
								<threshold> -1.3045429 </threshold>
								<split pos="left">
									<output> 1.0193853378295898 </output>
								</split>
								<split pos="right">
									<output> 0.23609629273414612 </output>
								</split>
							</split>
							<split pos="right">
								<output> 12.325206756591797 </output>
							</split>
						</split>
					</split>
					<split pos="right">
						<output> 0.5120697617530823 </output>
					</split>
				</split>
				<split pos="right">
					<output> -1.0048233270645142 </output>
				</split>
			</split>
		</split>
	</tree>
	<tree id="52" weight="0.1">
		<split>
			<feature> 5 </feature>
			<threshold> -1.6691227 </threshold>
			<split pos="left">
				<feature> 5 </feature>
				<threshold> -1.6961286 </threshold>
				<split pos="left">
					<output> 1.0001630783081055 </output>
				</split>
				<split pos="right">
					<output> 0.9696102738380432 </output>
				</split>
			</split>
			<split pos="right">
				<feature> 5 </feature>
				<threshold> -1.6556197 </threshold>
				<split pos="left">
					<feature> 11 </feature>
					<threshold> -0.97889006 </threshold>
					<split pos="left">
						<feature> 6 </feature>
						<threshold> -2.160864 </threshold>
						<split pos="left">
							<output> 1.0109550952911377 </output>
						</split>
						<split pos="right">
							<feature> 3 </feature>
							<threshold> -0.04367894 </threshold>
							<split pos="left">
								<output> -1.1091030836105347 </output>
							</split>
							<split pos="right">
								<output> 1.0102678537368774 </output>
							</split>
						</split>
					</split>
					<split pos="right">
						<output> 0.3636932373046875 </output>
					</split>
				</split>
				<split pos="right">
					<feature> 5 </feature>
					<threshold> -1.0344838 </threshold>
					<split pos="left">
						<feature> 11 </feature>
						<threshold> -0.97889006 </threshold>
						<split pos="left">
							<output> 0.9719604253768921 </output>
						</split>
						<split pos="right">
							<feature> 1 </feature>
							<threshold> 0.8023092 </threshold>
							<split pos="left">
								<output> 0.004896861966699362 </output>
							</split>
							<split pos="right">
								<output> 0.8598003387451172 </output>
							</split>
						</split>
					</split>
					<split pos="right">
						<output> -1.0056205987930298 </output>
					</split>
				</split>
			</split>
		</split>
	</tree>
	<tree id="53" weight="0.1">
		<split>
			<feature> 1 </feature>
			<threshold> 0.8023092 </threshold>
			<split pos="left">
				<feature> 6 </feature>
				<threshold> -2.160864 </threshold>
				<split pos="left">
					<feature> 5 </feature>
					<threshold> -1.6691227 </threshold>
					<split pos="left">
						<output> -1.1541762351989746 </output>
					</split>
					<split pos="right">
						<output> -0.026003144681453705 </output>
					</split>
				</split>
				<split pos="right">
					<feature> 5 </feature>
					<threshold> -1.6556197 </threshold>
					<split pos="left">
						<feature> 12 </feature>
						<threshold> -0.30399638 </threshold>
						<split pos="left">
							<feature> 4 </feature>
							<threshold> -0.18886386 </threshold>
							<split pos="left">
								<output> 0.09377356618642807 </output>
							</split>
							<split pos="right">
								<output> 1.0263490676879883 </output>
							</split>
						</split>
						<split pos="right">
							<output> 1.000152587890625 </output>
						</split>
					</split>
					<split pos="right">
						<feature> 12 </feature>
						<threshold> -0.30399638 </threshold>
						<split pos="left">
							<output> -0.41593798995018005 </output>
						</split>
						<split pos="right">
							<output> -0.94542396068573 </output>
						</split>
					</split>
				</split>
			</split>
			<split pos="right">
				<feature> 5 </feature>
				<threshold> -1.6556197 </threshold>
				<split pos="left">
					<feature> 2 </feature>
					<threshold> -0.08839794 </threshold>
					<split pos="left">
						<output> 1.1119604110717773 </output>
					</split>
					<split pos="right">
						<output> 1.0037904977798462 </output>
					</split>
				</split>
				<split pos="right">
					<output> 0.08419270068407059 </output>
				</split>
			</split>
		</split>
	</tree>
	<tree id="54" weight="0.1">
		<split>
			<feature> 5 </feature>
			<threshold> -1.6556197 </threshold>
			<split pos="left">
				<feature> 1 </feature>
				<threshold> 0.8023092 </threshold>
				<split pos="left">
					<feature> 5 </feature>
					<threshold> -1.6961286 </threshold>
					<split pos="left">
						<output> 1.0001256465911865 </output>
					</split>
					<split pos="right">
						<feature> 4 </feature>
						<threshold> -0.09899339 </threshold>
						<split pos="left">
							<output> 0.5279252529144287 </output>
						</split>
						<split pos="right">
							<output> 1.0276628732681274 </output>
						</split>
					</split>
				</split>
				<split pos="right">
					<feature> 11 </feature>
					<threshold> -0.97889006 </threshold>
					<split pos="left">
						<output> 1.0033751726150513 </output>
					</split>
					<split pos="right">
						<output> 1.1018708944320679 </output>
					</split>
				</split>
			</split>
			<split pos="right">
				<feature> 6 </feature>
				<threshold> -2.160864 </threshold>
				<split pos="left">
					<feature> 5 </feature>
					<threshold> -1.4935843 </threshold>
					<split pos="left">
						<feature> 5 </feature>
						<threshold> -1.5205902 </threshold>
						<split pos="left">
							<output> 0.8162941336631775 </output>
						</split>
						<split pos="right">
							<output> -1.1857036352157593 </output>
						</split>
					</split>
					<split pos="right">
						<output> -0.654800295829773 </output>
					</split>
				</split>
				<split pos="right">
					<feature> 12 </feature>
					<threshold> -0.30399638 </threshold>
					<split pos="left">
						<output> -0.406868040561676 </output>
					</split>
					<split pos="right">
						<output> -0.29636698961257935 </output>
					</split>
				</split>
			</split>
		</split>
	</tree>
	<tree id="55" weight="0.1">
		<split>
			<feature> 5 </feature>
			<threshold> -1.6556197 </threshold>
			<split pos="left">
				<feature> 1 </feature>
